100 64
65 0.18388659 -0.014716259 0.13081226 -0.0028536238 0.09743949 -0.005786214 -0.0008608754 -0.09038619 -0.052938815 -0.05263849 -0.16406378 -0.12248867 -0.1273344 -0.037536513 0.05075083 0.12478757 0.15495813 0.029936738 -0.06055951 0.09187401 0.07145118 0.14759417 0.32832545 -0.058986314 -0.04344218 0.20329298 -0.13986632 -0.020044843 0.11851413 0.020017115 0.0156176295 0.053032022 -0.124316275 -0.011358574 -0.03632925 -0.016903901 0.05574383 -0.07180732 0.05369924 -0.05949817 -0.021918194 -0.06901233 0.003044464 -0.02388586 -0.040714882 -0.19471756 0.10909988 -0.09704202 -0.032431416 0.16630888 -0.04503388 -0.025251191 -0.034450598 0.03928076 0.02613217 0.097145595 0.030377608 0.054402884 0.07140995 0.08148126 0.051989693 0.078041606 -0.063390285 0.0025543054
24 0.1293135 -0.020793991 -0.09169515 -0.034567814 0.032353204 -0.049490828 0.045686122 -0.011283523 -0.08945806 -0.063638404 -0.052938458 -0.18340659 -0.17068034 -0.09511601 0.038990937 0.12572156 -0.0008368695 0.09791915 0.027678886 0.10898614 0.24024412 0.07435467 0.19129066 -0.03934883 0.07927176 0.100714825 0.0015166351 -0.008808478 -0.01516682 0.051918663 -0.021864323 -0.06108183 -0.08486772 0.06892916 -0.15177064 0.050804894 0.10730751 0.042065244 -0.03381063 -0.16152112 -0.037206046 0.039289627 -0.10973255 -0.09045228 0.03653095 -0.070519514 0.031146169 -0.04985406 0.044472713 -0.10152842 -0.1358235 0.09228066 0.10082883 0.044452418 0.0813913 0.10352984 -0.07194205 -0.00063504616 -0.076226175 0.24441837 0.12726654 -0.026867997 -0.063009344 0.09457212
74 0.010056448 0.043420613 0.086881064 0.012910863 0.075777434 0.079597086 -0.014394841 0.044367842 -0.1399687 -0.02175476 0.0811863 -0.18488282 -0.1569915 -0.08676647 0.034898303 0.06830467 -0.049633577 -0.004798152 0.01611872 0.1131115 0.033143077 0.2612765 0.13884102 -0.009593684 0.0020259628 0.22306086 0.041002814 -0.049824383 0.038369212 -0.053663224 0.05952113 -0.03757183 -0.19313948 -0.06885558 -0.094664626 0.007259875 0.02202538 -0.07236606 0.013031978 -0.12713157 -0.04359426 -0.034857932 0.00989347 -0.057754993 0.021729585 -0.08648742 0.013338059 -0.095474 -0.008304861 -0.068208866 -0.010077158 -0.107656404 0.06811033 0.15628457 -0.06974196 0.18701822 -0.04262875 -0.062031817 -0.06664288 0.087046 0.041469175 -0.13813546 0.016209528 0.043073256
86 0.076161236 -0.029530989 -0.08164726 -0.034531113 0.034952186 -0.18979977 -0.06437947 0.03507349 -0.03066703 0.030379152 -0.016408745 -0.07842552 -0.12722318 0.038857944 -0.03589362 0.06201822 -0.022081587 0.08851754 0.032317113 0.11871505 0.06602187 0.18969777 0.2045523 -0.14848734 -0.08029214 0.19851907 -0.015218697 -0.10590423 0.109390326 -0.041367684 -0.046855073 0.021983236 -0.17986955 -0.027869105 -0.05410155 -0.1107052 0.054777104 0.020044565 -0.019563397 -0.07397264 -0.004213699 -0.07630764 0.099508494 -0.09814646 0.19528486 0.09404735 -0.004686855 -0.061606087 0.02015457 0.07064582 -0.04230958 -0.0152638005 0.090129435 0.18908577 0.0591373 0.033735923 -0.003973777 0.07157818 0.010040707 0.09788501 0.17033345 -0.105148375 0.048311263 0.061586265
39 0.11151459 -0.09481656 0.10597079 -0.0029646114 0.1788086 -0.02586588 0.059491705 0.08092073 -0.13739997 -0.13903634 -0.13985421 -0.2753437 -0.0005416135 0.03932741 0.07179103 0.1153198 0.05466083 -0.07967827 -0.031993445 0.13899109 0.049402256 0.24813907 0.08946505 0.042304683 -0.09371866 0.08957769 -0.07706709 -0.15812379 0.041527513 -0.11201664 -0.087635174 0.060711294 -0.15636854 -0.07338842 -0.04996602 -0.050625224 -0.071393386 -0.06717277 0.03626703 -0.020062698 0.03162648 -0.0930897 -0.03911031 -0.08543909 -0.06757887 -0.05286624 0.08945229 -0.04878713 0.037502613 0.014628872 -0.11786961 0.055469565 0.01572417 0.17428759 -0.027493587 -0.006999931 0.07116348 -0.07646358 -0.05648757 0.02503874 0.070447735 -0.048836432 0.052418042 -0.025936086
37 0.12878965 -0.22231764 0.11049089 0.054495353 -0.0019283794 -0.020693984 0.054405034 -0.0032930283 -0.12724137 0.022025373 -0.04089159 -0.09755645 -0.22691926 -0.024767201 0.045549065 0.07712427 0.13259064 0.1168219 0.09207439 0.03860575 0.07658964 0.26344532 0.08111922 -0.046500355 -0.011691374 0.007184874 -0.09377252 -0.12504192 -0.021065108 -0.082216784 -0.08856732 0.14381644 -0.125106 -0.01091378 0.026416298 -0.03179638 0.08108966 0.010776737 0.14151539 -0.09905221 -0.08565624 0.008354675 -0.0119148865 -0.10957807 0.16239391 -0.030964386 -0.034386504 0.03721594 0.055368613 0.041100617 0.018828569 -0.04360607 0.08037126 0.24199641 0.054647747 0.15803514 0.06173244 0.00986557 -0.059801564 0.048393235 0.009809925 -0.10504933 -0.023681529 0.012257351
90 0.10923575 -0.036377944 0.025126403 -0.13397945 0.16974628 -0.006608649 0.1172341 0.06721954 -0.15743145 0.016692765 -0.084293835 -0.22531372 -0.076164484 0.15881743 0.0013755165 0.16600637 0.10429679 0.059178434 -0.13006909 0.018738078 0.05524967 0.18664122 0.15292369 -0.055413563 -0.037295222 0.09168981 -0.12581545 -0.03845541 0.09327156 0.042675324 -0.032701142 0.068377696 -0.11220144 -0.0893624 -0.15151265 -0.029860452 0.06253207 -0.05841766 -0.0037292002 0.02860271 0.06333507 -0.1514075 -0.019973358 0.015631452 -0.048548754 -0.05489897 0.08737786 -0.09970506 0.0058438196 0.005627021 -0.019198505 -0.049880493 -0.01529359 0.1664484 -0.007848729 0.0529264 -0.09052849 -0.052710645 0.066588424 0.075559095 0.117781736 -0.043256342 -0.097675964 -0.011649503
56 0.11461944 -0.10575475 0.05772717 0.034960955 -0.08206571 -0.06810148 -0.04336908 -0.003172285 -0.06272502 -0.03763288 0.111622475 -0.16297205 -0.06915201 -0.041619472 0.002643114 0.07472433 0.058435872 0.03401563 0.09865655 0.10864148 0.12670125 0.1497276 0.13226002 -0.050631654 -0.07127846 0.18600747 -0.031085892 -0.049278967 0.13720353 0.032040328 0.043215092 -0.16167831 -0.02512515 -0.047562327 -0.2117332 -0.12351343 0.012316283 -0.1409421 -0.03816434 0.0650841 0.13908458 -0.004294457 -0.037135232 -0.0724078 0.13894029 0.0011272705 -0.04077463 -0.08544021 -0.07145328 0.040201508 0.068183735 -0.033094306 -0.010059016 0.13463178 0.05286396 -0.037238296 0.03241432 0.06831159 -0.069688186 0.15726872 -0.044654123 -0.19705272 -0.05866204 0.06923393
44 0.10343858 0.0058845794 -0.06563012 0.11238842 0.060944695 -0.003085912 0.20340584 0.053558934 -0.123808034 -0.05131672 -0.05852716 -0.096095145 -0.2330054 0.024706056 -0.0068793017 0.13543576 0.13676217 0.05612163 0.10575342 4.275433e-05 0.06924329 0.16283336 0.15832667 -0.11012005 -0.103378855 0.005529717 -0.03395526 -0.027477134 0.1549859 0.03249082 -0.109693885 -0.078112036 -0.03369694 -0.007663789 -0.08091641 -0.09447793 -0.052144267 -0.037620205 0.047941104 -0.051327698 0.044212714 -0.08968513 -0.029012423 -0.16306782 -0.033775955 -0.10839002 -0.043443054 -0.033795998 0.20630403 0.0939356 -0.039331544 -0.009380529 0.04739288 0.14734133 -0.09496904 0.084129095 0.0735922 -0.067034 -0.14104217 0.12540689 0.0581162 -0.08145346 0.18510762 0.059517775
34 0.011114628 -0.088291384 0.020931976 0.024182577 0.04252608 -0.04998807 0.014051615 -0.05374149 -0.09254332 -0.013914391 0.046679154 -0.25207207 -0.22554134 0.07126533 -0.014670664 0.089847885 0.034176007 0.14977294 -0.04079033 0.048576128 0.2149564 0.08995855 0.16523266 -0.08519197 -0.0042992174 0.059637908 -0.13222174 -0.057489507 0.074024595 0.06136934 -0.019373056 -0.061913516 -0.04451217 -0.017266553 -0.13104424 -0.003021198 -0.02880472 0.020598184 0.10225713 0.055652197 0.09629636 0.050838444 -0.113319464 -0.14306062 0.0024744356 -0.0648953 0.053163454 -0.078438446 0.015859153 0.07449065 0.021387907 0.108865514 0.14114088 0.0675055 -0.0081315655 0.075912386 -0.04017535 -0.12812772 -0.0233841 0.023302425 0.109200366 0.055394188 -0.12957601 0.006834921
50 0.14404398 -0.009819267 0.09168107 0.0786041 -0.027419891 -0.08600714 0.0018216677 -0.020861275 0.0010866817 -0.04744114 0.08621496 -0.2559784 -0.18754624 -0.109373674 0.044529304 0.15232542 -0.028265135 -0.035847835 0.17334062 0.12958452 0.05281267 0.11305445 0.2455116 0.00198488 -0.043418262 0.047772508 -0.03967313 -0.100670375 0.053584773 0.07444022 -0.04458357 -0.15737486 -0.059195988 -0.14965108 -0.19040766 -0.07634585 -0.07682011 0.035829 0.043560617 -0.1322636 -0.06595164 0.038278647 -0.11289421 -0.095038526 0.02394314 -0.023082875 -0.16613635 -0.03173578 -0.08926625 -0.023616508 -0.19212186 -0.1018975 0.05099131 0.061555587 0.00026767887 -0.09070335 -0.039307322 0.13081446 0.04071039 0.16160174 0.06070911 0.023117714 0.030550702 0.14790547
57 0.12069221 -0.058957726 0.059768 0.011955408 0.05671263 -0.0040826728 -0.10037289 -0.034352027 -0.09207007 -0.042671997 -0.0019852486 -0.109666616 -0.20645785 -0.02464336 0.012382238 -0.011642045 -0.07952367 -0.030542288 0.08111379 -0.042046577 0.15212058 0.18944511 0.110029936 -0.1435438 -0.1369049 0.12830976 -0.14800335 -0.049279943 -0.010354621 0.054060873 0.06940277 0.04556535 -0.13449484 -0.08551075 -0.098866686 -0.037980042 -0.054712836 0.03950399 0.06389688 -0.15353507 -0.03223995 -0.05556609 -0.07908941 -0.10862923 0.20726703 -0.021037405 0.094983414 -0.03466 0.010371596 0.031399123 -0.023455054 -0.18749367 -0.05648713 0.1317846 -0.05816998 -0.03090534 -0.09668183 -0.00012406461 -0.05050416 0.065195665 0.2035046 -0.050524194 0.048518807 0.06575666
26 -0.0018278983 -0.16634421 -0.02154632 -0.117845915 0.0034079922 -0.10345734 0.025733963 0.11075302 -0.065413594 -0.034981385 0.15887924 -0.15050638 -0.066590644 -0.07221691 0.021471765 0.1260486 0.050214928 0.042905424 -0.036843438 0.061218828 0.052136667 0.22903997 0.08022111 -0.070343584 0.022314543 0.17798963 -0.21202053 -0.06713074 0.010867766 -0.08008862 -0.0429177 0.023262532 -0.11712844 -0.03764474 -0.1366248 -0.06920151 -0.08082034 0.05442838 0.107023254 -0.12762387 -0.0036053406 0.037778515 0.014778233 -0.1410163 -0.010779706 -0.16346832 0.043233078 -0.11753924 0.13793214 0.036367364 0.0051979665 -0.12479947 -0.055036575 0.13327639 0.09603232 0.085045785 0.0013081235 -0.08981658 -0.0114381695 0.10141002 -0.018869184 -0.019381976 -0.07221296 0.074469544
48 0.10322963 -0.10128591 -0.085031174 -0.066763304 -0.050802298 -0.008629768 0.023844512 -0.00087596645 -0.22825935 0.11287103 -0.06377981 -0.15557261 -0.1835816 -0.122556105 -0.034868207 0.11438743 0.1491391 0.022307308 -0.13274612 -0.028900005 0.18814126 0.09799304 0.08495872 -0.043361142 -0.12174306 0.052925933 -0.14420195 -0.10487159 0.02261253 -0.0022789754 -0.043825425 -0.020617802 -0.0789632 0.058465555 -0.2124873 -0.04442987 -0.017870896 -0.046388227 0.007010996 -0.03794884 0.08116749 0.015854314 -0.027208893 -0.11818387 0.0065123606 -0.024786383 -0.04859938 -0.033869 -0.08723261 0.019524697 0.20685765 -0.096796185 0.15443069 0.05634308 0.029593676 0.03569132 -0.018482 0.0068426817 -0.136857 0.058492344 0.17855658 -0.09606803 -0.07505065 0.04534889
53 0.0730071 -0.00044079017 -0.047399845 0.124821775 0.058264125 -0.02318832 0.026866578 -0.06275224 -0.08678189 0.020908153 0.0028085087 -0.18990323 -0.15736142 -0.117730826 0.026000263 0.054884713 -0.052364767 -0.0723745 0.0045673894 0.12243395 0.16117465 0.097819716 0.081650525 -0.062398635 -0.1366484 0.15779272 -0.1881921 0.008561875 -0.01077723 0.09572662 0.02047432 -0.038385604 -0.04771514 -0.23020987 -0.10358657 0.061583918 0.05478979 0.092038564 0.0938207 -0.07975882 0.06502361 0.04283838 -0.056894112 -0.04261533 0.06002687 -0.12698586 -0.025958192 -0.18948564 0.14008121 -0.053190507 -0.05025885 -0.14303413 0.12635359 0.14512761 0.065885045 0.0850274 0.0051486637 -0.069898054 -0.11103631 0.10296893 0.11993893 0.097990364 -0.12715057 0.058070857
99 -0.14338598 -0.055403784 0.021024399 -0.07559686 -0.015208567 -0.06769721 0.053967148 -0.019054465 -0.13907598 0.0530475 -0.16030261 -0.05467798 -0.11851717 -0.13870013 0.023461198 0.23759185 -0.05490865 -0.039629985 -0.000501425 0.23931502 0.085082516 0.12747471 0.13839693 -0.033514515 -0.1200816 0.082071654 -0.16611633 0.13443673 0.03770486 -0.04981319 -0.09756708 -0.11262999 -0.23751566 -0.05691562 -0.070381865 -0.04517523 0.03721673 -0.1254588 0.062800795 -0.061078448 0.11365268 -0.068780914 -0.02871718 -0.07140133 0.081093974 0.045818783 0.06890852 -0.0432537 0.043490272 0.016598001 0.015601776 -0.0477688 0.122884005 0.09579715 -0.03922108 0.0731131 0.042483058 -0.109412126 -0.16041052 0.13201012 0.012349469 -0.113136604 0.08922746 0.16466308
2 -0.008365513 -0.1517336 -0.02459452 -0.099278934 0.16927336 -0.109707974 -0.07833152 -0.10894698 -0.024012182 -0.09155321 -0.028037844 -0.16405173 -0.16437544 -0.122946545 0.018174568 0.10722978 0.091534115 0.006138755 0.020346338 0.009687227 0.19412114 0.08565766 0.12854652 0.026033774 -0.017506752 0.1335144 -0.13187887 -0.005874076 -0.04158318 0.09595782 -0.12635449 -0.07862761 -0.10882288 0.0032035622 -0.07372376 -0.018669412 -0.07078803 -0.08749743 0.041968767 -0.021758555 0.02057586 -0.03721314 -0.07667601 -0.05159622 0.02610085 -0.1259195 0.06333695 -0.05049981 0.10522891 0.05672024 -0.116925344 0.077076875 0.106428884 0.1814671 -0.17035353 0.024256028 -0.16091539 0.061316457 0.04632032 0.05372874 0.110695526 -0.09382537 0.019642284 -0.02817628
40 0.12972707 -0.10530866 0.006320952 -0.019854004 0.15041663 -0.016235944 0.03691954 0.11908374 -0.09806928 0.0042621153 -0.15897723 -0.11799478 -0.13508745 -0.060283724 -0.079089195 0.12277329 0.10372504 0.08059929 -0.10383339 0.058770187 0.082663044 0.16341944 0.084123045 -0.04525898 -0.029389646 0.114614435 -0.13097975 0.06973949 0.11804967 -0.055036858 0.049166683 -0.097466424 -0.05203561 -0.088252254 -0.27842763 -0.150971 0.022043478 0.0690907 0.045747213 -0.048949543 0.08765842 -0.15218723 -0.036664 0.01841518 0.14391142 -0.22528058 0.15091345 -0.011078048 0.1004915 0.025319356 -0.0745167 -0.093865186 0.14632334 0.027469233 0.057172533 -0.039311767 0.029295098 -0.07683361 0.005781128 0.117282316 -0.07020857 0.05958111 -0.07908381 0.069268376
55 -0.03178158 -0.14835627 0.11527923 -0.054944355 -0.046069738 -0.00047015137 0.039723597 0.065466054 -0.10568348 -0.11482357 0.0632708 -0.18682039 -0.23784894 0.035434954 0.0867812 0.065084875 0.2019382 0.085748754 0.09260078 0.08201418 0.13766594 0.32347444 0.085764855 -0.019202461 -0.039853375 0.06586949 -0.084513664 -0.051689744 0.014212091 0.010204002 0.04522663 0.11772826 -0.16018413 -0.0524609 -0.035233203 0.06124775 0.07002641 -0.124212645 -0.041920364 -0.05123151 0.041992627 0.14773807 0.04652892 -0.050404344 -0.01815889 -0.10796523 -0.053762674 -0.07497021 0.08848671 -0.08847505 -0.034210395 0.04321118 0.02259757 0.14932203 0.038472112 0.10565647 -0.07233895 0.078923956 -0.066474505 0.118099995 -0.033133216 -0.12437529 0.026498128 -0.015358309
6 -0.035990983 -0.0484002 0.06254499 -0.07783214 -0.04596456 -0.18509555 0.12033424 0.10768982 0.053350262 -0.008000369 0.0010400113 -0.16996565 -0.20857829 -0.19541362 -0.03211338 0.10057678 0.054966792 -0.00012721613 0.030218244 0.031419903 0.013165282 -0.017275587 0.20199624 -0.044091325 -0.03173734 0.12870125 -0.10389205 0.0056384793 0.07463087 -0.034238614 -0.09696234 0.016111067 -0.111514926 0.052425474 -0.195276 0.094184436 -0.01658832 -0.091539696 0.12886088 -0.08610706 0.18592145 -0.029278532 -0.068816036 -0.0847934 0.017621035 -0.22931653 -0.0692723 -0.13233529 0.054500926 -0.03888788 -0.07058778 -0.10402541 0.22431158 0.20866163 -0.036808077 0.14010152 -0.06997451 -0.0011800353 -0.062046163 0.076738186 -0.089691624 0.012312086 0.18341805 0.112023726
49 0.07797465 -0.11593837 -0.08452735 -0.037062913 -0.104834415 -0.1527928 0.10381433 -0.03621109 -0.09881569 0.00892266 0.124604866 -0.31932002 -0.054185838 -0.11440941 0.07178515 0.004272833 0.0023503192 0.03573209 0.03706098 0.10554042 0.07841564 0.205695 0.016905613 -0.074752785 -0.11405686 0.08529476 -0.07347066 -0.051862698 0.05849319 0.021150367 -0.122716874 0.104462594 -0.16529775 0.012488729 -0.11577581 -0.031310808 -0.031986363 -0.13870062 0.029989904 0.07451923 -0.0989553 -0.08397135 -0.15855524 -0.0027061657 0.06803735 -0.031300668 -0.08142656 -0.16970204 0.0052209473 0.07349949 -0.024669873 -0.06304064 0.046996377 0.13160017 0.040367182 0.027760418 0.17379265 -0.18292393 -0.04483443 0.17593463 -0.06669062 -0.13678086 -0.14005305 0.03510377
31 0.12432357 0.006676457 -0.013818079 -0.11024407 0.12432979 -0.10517568 0.0037120979 0.050134514 -0.028151156 -0.0031394458 0.048408013 -0.0898527 -0.20561555 -0.07489954 -0.0036150275 0.04811517 0.05627469 0.076799735 0.19335549 0.17633921 0.07888168 0.23359951 0.124639556 -0.10117324 -0.028523937 0.14834282 -0.083540335 -0.09699992 0.06703023 -0.12345661 -0.10027928 0.030502453 -0.019509908 0.07574482 -0.071917094 -0.017718542 -0.0037034743 0.013921559 -0.011151614 -0.006840054 -0.10574311 -0.12743989 -0.058421135 -0.03007001 0.037368238 -0.1497353 0.05535674 -0.14614087 -0.03365187 0.07032895 0.09718634 -0.11664865 0.026135487 0.21868889 -0.0010339419 0.004223366 -0.05626886 0.085933484 -0.041832007 -0.009706896 0.059352726 -0.1348827 0.04996743 0.08314366
88 -0.02376131 -0.11134222 0.012921221 0.004304441 0.16506203 -0.074942335 -0.019265318 -0.033292357 -0.09812765 -0.13710366 -0.087754376 -0.2146988 -0.18022905 0.0011151221 -0.03919162 0.19020142 0.054055415 -0.111960866 -0.030781135 0.10717585 0.091334194 0.2068449 0.19636782 -0.075467214 -0.10697011 0.1740767 -0.047362097 -0.27545586 0.052561082 -0.14268395 -0.013619449 -0.0917202 -0.05569509 0.021531159 -0.19046727 0.019482063 0.04250749 0.15180571 0.120257385 0.01015031 0.056181684 0.03351073 -0.0769476 -0.018035546 0.0065596313 0.043439202 0.003937452 0.004399152 -0.04824082 -0.006094009 -0.14053227 0.13481058 0.077872515 0.026109187 0.04798845 -0.07354379 0.007857998 0.015989747 -0.06412981 0.071057156 -0.000802666 -0.040045124 0.022836149 -0.13603358
82 0.036869608 -0.12676975 0.11781445 -0.06402933 0.030179631 -0.18229125 0.052373737 -0.030258643 -0.032751977 0.036400907 -0.08882249 -0.21677041 -0.20693919 0.0717115 0.14216182 0.11045594 -0.010977135 0.062878 0.116921745 0.16243656 0.062078435 0.08110156 0.12958562 -0.052730564 -0.115762495 0.104386225 -0.023651598 -0.12387523 0.06778065 -0.042637624 -0.10283114 0.108695716 -0.07777688 0.0035325126 -0.22211103 0.04018318 0.05485071 -0.14033237 0.033067413 -0.0071123526 0.25330153 0.0063313986 -0.03808299 -0.09432432 -0.020863658 -0.030209614 0.03675968 -0.015135372 0.012342757 -0.027155193 -0.026703293 -0.055515554 0.019428544 0.10615003 0.076744094 -0.026818607 0.023035837 -0.017626727 -0.13528983 -0.017918073 0.15597482 0.002006828 -0.076132335 0.005848472
71 0.044848192 -0.056769546 0.09117124 0.072015636 0.081279084 -0.02580019 -0.08269947 0.0017734531 -0.028244803 0.089566074 0.06840955 -0.17319554 -0.25168604 0.035608076 0.09126245 0.11718461 -0.0048413305 0.06381517 0.020582153 0.1893454 0.09153925 0.19083808 0.058811583 0.008899854 -0.11709584 0.1174648 -0.07564136 0.03473219 0.036636446 0.005499588 -0.05575238 0.00883954 0.019205328 0.020852497 -0.2757541 -0.059899982 0.023529202 -0.15593834 0.078084625 0.08139089 0.09189898 -0.005440575 0.0023275663 -0.12012639 0.084240265 -0.07353603 -0.03268402 0.07534902 0.004142627 0.039254244 0.058273684 -0.19878168 0.015503745 0.13278936 -0.112072304 0.015454082 -0.10634708 -0.028044242 -0.06167147 0.13041666 -0.0123351915 0.032275066 -0.085469514 0.15105684
21 0.14890307 -0.15363222 0.16020952 0.028143737 0.021596668 -0.066544436 0.07746164 0.021785406 0.0115214065 0.022269858 -0.10774317 -0.1526015 -0.23243044 0.015794633 -0.0209347 0.09691218 0.035268556 -0.22837812 -0.05082967 0.1274935 0.208793 0.13723652 0.18545276 -0.023484938 0.040547688 0.07390384 -0.1274576 -0.09127169 0.09953068 0.18480305 -0.09747205 0.009926468 -0.13177703 -0.10269684 -0.03290043 -0.041013733 -0.016524028 -0.17434669 -0.013358105 -0.024025671 0.029749172 -0.08803423 -0.036529798 0.046793588 -0.06413948 -0.11744906 -0.05404279 0.009999587 0.022183716 0.0004669674 0.0040247897 0.13112043 0.18397033 -0.014128288 -0.025556833 0.17878011 -0.06274424 0.012185234 0.018394075 0.16688608 0.08597837 0.06328086 0.026875501 0.016253881
16 -0.053759996 -0.1089189 0.04787937 0.12883365 0.119246624 -0.0852265 -0.0008911777 -0.0808586 -0.2220086 0.0017153937 -0.029109674 -0.18333226 -0.105447136 0.033000503 -0.008391378 0.012958032 0.044450887 0.16485158 0.038102973 0.006893748 0.13772652 0.17557193 0.11006183 0.021662017 0.09802188 0.097225435 -0.14711814 0.021384569 0.0120824175 0.045185003 0.056067057 -0.12051545 0.01170881 -0.025073128 -0.121315554 -0.061032563 0.07732404 -0.14411432 0.006461254 0.051929954 0.0996001 -0.121772386 0.061383277 -0.16830641 0.023008212 -0.060721703 -0.01506717 -0.18229988 -0.048516806 0.08025502 -0.09317309 0.05245206 0.12227568 0.10681351 -0.024009151 0.053866442 -0.08171579 0.051517423 -0.22265022 0.0812752 0.1496293 -0.13726707 -0.12841879 0.01786382
52 0.16528639 -0.07257149 0.115579225 -0.09978881 0.11323455 -0.043479435 0.007358067 0.18006022 -0.14663656 -0.08238531 0.038929597 -0.24966314 0.0045033074 -0.05750338 -0.11017781 0.043914367 0.014580132 -0.03706766 0.1954698 0.15703703 0.114644215 0.124248534 0.14432944 0.031371653 -0.099059165 0.018265983 -0.06834167 -0.2049654 0.15340747 0.010419044 -0.023388768 0.06475919 -0.13497217 0.05750012 -0.13056412 0.025552196 0.07188582 0.067623146 0.0054232082 -0.01042597 0.072821714 -0.18766502 -0.07414417 0.016272718 0.061565258 -0.020682173 -0.017963493 -0.032772403 0.006652031 0.09731576 -0.040324885 0.062052388 0.039402097 0.04156321 -0.015429058 0.07886024 0.025834778 0.027869187 -0.029531833 0.08724787 0.0540899 -0.079424195 -0.15334141 0.1679325
36 0.10328327 -0.07921508 0.059486397 -0.03719529 -0.10393107 -0.10722546 0.020388072 0.12591349 -0.021657713 -0.13064559 0.077739686 -0.25934544 -0.15214813 0.065134555 -0.040124007 0.13709037 -0.0067686 -0.015800834 -0.053676095 0.091883615 0.16389006 0.21837956 0.17917725 -0.12482246 -0.010620376 0.14812545 -0.0906371 -0.10633052 0.010341952 0.09363642 0.039023645 -0.062321007 -0.041963592 0.123754136 -0.12789725 0.063632555 -0.058502764 -0.051867373 0.025205726 0.0094845425 -0.058041412 -0.03298419 0.044787187 -0.14958727 0.12692949 -0.19984354 0.15985835 0.06467333 -0.085304 0.0661276 -0.03776618 -0.122927494 0.06822721 -0.026077805 0.09119408 0.02800652 -0.030286731 0.045366567 0.10060101 0.09632589 -0.024513964 -0.056323357 0.06807704 -0.028833
58 0.05039036 -0.1752805 0.07998338 -0.025050882 -0.058915205 -0.012054959 0.059496548 -0.05046746 0.046515733 -0.08020056 -0.048733376 -0.17966883 -0.1374719 -0.14863169 0.09333124 -0.020111276 0.16073237 -0.03956017 0.10066724 0.056223027 0.017799012 0.2059153 0.05496596 -0.18055664 -0.035048954 0.22370489 -0.17418681 0.09107685 0.03963819 -0.019928139 0.0048953993 0.050147075 -0.08678474 -0.04215987 -0.17580678 -0.050454568 0.034723487 -0.04280156 -0.05384342 0.13741367 0.04706172 -0.13374415 -0.007769966 -0.040726997 0.020121302 -0.107038416 0.045092627 -0.052106794 -0.15400831 0.18732947 -0.17433996 0.030952951 -0.07173566 0.16694662 -0.056670595 0.1511274 -0.01697584 -0.015270216 0.06860111 0.07685201 0.1614848 -0.04603078 0.009179183 0.061520718
4 0.18178347 0.00072575914 -0.09879998 -0.024065219 0.19567579 -0.07113068 -0.12193326 -0.07107364 -0.08223831 0.066233896 0.031464603 -0.06671716 -0.15723926 0.03443718 0.09025249 0.10602764 0.0011868307 -0.12917006 -0.067873925 0.014072916 0.10208747 0.2447205 0.036283076 -0.09648948 -0.089563884 0.23520748 -0.014877525 -0.13003796 0.013933129 0.018390711 -0.009234878 -0.0010467775 -0.1522924 -0.009829477 -0.16110192 -0.046510316 -0.024589278 -0.013180593 0.1115688 0.11743978 0.09318578 -0.16034013 -0.051837727 -0.09461039 0.05055106 -0.051486943 -0.01701348 0.016771225 -0.04615258 -0.008450909 -0.013634109 -0.073709466 0.17155872 0.13348721 -0.07353206 0.06157873 -0.039924167 0.028658893 -0.0181387 0.018903421 0.117722146 -0.14538795 -0.09800134 0.07644181
30 0.07224707 -0.15972221 0.055715166 -0.08828487 0.079222135 0.05409239 -0.070077166 -0.029387405 -0.16293313 0.050882008 0.062063646 -0.10910642 -0.19747557 -0.029790273 0.11612091 0.060006063 -0.06996257 -0.015111165 -0.066313595 -0.04027424 0.04335044 0.043170005 0.15519619 -0.10787801 -0.022931129 0.07467296 -0.1164394 -0.1253022 -0.007891737 -0.017842013 -0.16704708 -0.05749656 -0.067698225 -0.07722394 -0.020122742 -0.112415336 -0.06729068 -0.086724825 0.026842816 0.029118882 0.0941296 -0.09425092 -0.25084978 -0.04001398 0.07457632 -0.050251562 0.07354078 -0.21753827 -0.027749218 -0.13359919 0.03267383 -0.21199054 0.06631875 0.23066616 0.014779039 0.13050596 -0.028505923 0.005013345 -0.09696767 0.28564066 -0.07292097 -0.024031665 -0.02389817 0.04713261
10 0.16951756 0.016765282 0.11546705 -0.035230193 0.11651324 -0.05437032 -0.14685166 -0.067549616 -0.05296737 0.008589917 0.080026515 -0.23903109 -0.14986968 -0.15846825 -0.11957456 -0.07234685 0.06912747 0.015671883 0.13148479 -0.05372236 0.21494484 0.15639026 0.24014333 0.064915486 -0.161923 0.06463585 0.030134272 -0.050223872 0.03859671 0.03418618 -0.16794743 -0.07145993 -0.07040506 -0.121793665 -0.24659951 -0.045082156 0.019409359 0.056565892 0.04695656 -0.14342214 0.04487717 -0.07730637 -0.00881264 -0.06314439 0.10531828 0.01951541 -0.102960646 -0.09507317 -6.152902e-07 0.048412554 0.09122283 0.019346813 0.16358256 0.048258927 -0.03653441 0.0063661644 -0.04455874 0.051044643 -0.07148075 0.04140877 0.12986887 -0.046085015 -0.0016457839 -0.10994322
77 0.13093069 -0.06450113 0.14005667 0.0043979664 -0.101000875 -0.012368482 0.110447764 -0.07062234 -0.09350928 -0.06686085 0.060273327 -0.052859906 -0.270009 -0.13979007 -0.05210778 0.14625654 0.18184522 0.090427905 -0.11382714 -0.07377422 0.11942776 0.09619744 0.2716221 -0.05103734 -0.04552076 0.0048993574 -0.12547301 -0.14055015 0.0638598 -0.076983444 -0.15110178 0.037672862 -0.11404295 0.0046599577 -0.21777229 -0.035965685 -0.011550488 -0.073287986 0.104111224 -0.00421683 0.012969442 -0.04011654 -0.22326018 -0.16055068 -0.019123703 -0.042014524 -0.006293281 -0.0023858363 0.07981431 0.2107732 -0.046262816 0.0010373172 0.113851964 -0.011619007 -0.03343012 -0.14315169 0.031892896 0.0028944646 -0.036721196 0.008617628 -0.0018789313 -0.10426452 -0.011353421 0.07006443
79 0.24215692 0.05144618 0.09448205 0.15046531 0.018910643 0.08552838 -0.0875409 0.06599848 -0.21368673 0.061884854 0.009312348 -0.2613389 -0.13458368 -0.024901453 0.076358505 0.1458415 0.011514589 -0.025366135 0.124055445 -0.014755871 0.10703662 0.0059271813 0.15802729 -0.056708816 0.01945812 0.08151962 -0.09168168 -0.09970651 0.11437355 0.0942908 -0.06986245 -0.040771935 0.050887406 -0.12930135 -0.12519005 0.17264928 0.112593055 0.0034848116 0.075789176 -0.07949547 0.05121779 -0.010524175 -0.0209808 -0.14518972 0.1139032 -0.06368018 0.08582044 -0.075375356 0.014335422 0.12735158 -0.025432242 -0.07572817 -0.038534947 0.13489091 -0.020307373 0.13289244 0.0009431428 0.018678857 -0.0608851 0.185772 -0.020842394 -0.059510093 0.060393848 0.061787654
59 0.1647609 -0.11651106 -0.011354777 -0.0317723 -0.012660899 -0.1982206 0.04525053 -0.09008141 -0.04252053 -0.11585992 0.014296552 -0.1748916 -0.11912022 0.016423 0.15440495 0.14260176 0.03665625 -0.12619416 -0.025651522 -0.05622726 0.07425696 0.1408274 0.086373515 -0.15372376 0.053394724 0.1368611 -0.11250825 -0.05746311 0.042248264 0.05437081 -0.047538828 0.09581771 -0.13421717 -0.08217905 -0.11513006 -0.0256959 0.076027915 0.03748224 0.033669665 0.1415374 0.13771582 -0.043986898 0.064036846 -0.16363767 0.025017628 -0.030627798 0.08992148 -0.07772686 -0.00094925065 0.052808292 -0.023488076 0.0135955755 -0.010508831 0.14789522 0.00045254204 0.07081262 0.06409839 0.031489298 -0.049572952 0.1849227 0.05973065 -0.13075985 -0.0158131 0.052659344
45 0.14145526 -0.14081894 0.029846145 0.028327178 0.035057258 -0.128705 0.014937898 0.11590104 -0.10474458 -0.041528024 -0.059883777 -0.07498719 -0.18490873 -0.09729124 -0.110579886 0.051765833 0.13340805 0.0035501781 0.0661417 0.11256475 0.14767762 0.14100859 0.21248068 -7.950863e-06 -0.1264972 0.07495791 -0.081551455 -0.06510503 0.027777303 0.052475262 0.121021084 -0.0078059994 -0.17464906 0.015815286 0.0058588516 -0.14307807 0.051905546 -0.091892794 0.018583255 0.08929159 -0.11040342 0.06729029 -0.055076923 0.02412278 0.08180738 -0.0028412433 0.032304514 -0.090561986 0.115622334 -0.05003695 -0.069957204 -0.052242804 0.061829224 0.27990368 -0.016166292 0.043166403 0.07172255 -0.036793195 0.08276932 0.16960661 0.07335849 -0.016111018 0.124000885 0.07616492
95 0.047848992 -0.13839109 0.11140293 0.09605518 0.11371587 0.0013220137 0.06215153 0.06886362 -0.010393449 -0.105826855 -0.00088945613 -0.12366552 -0.21829236 -0.016583158 -0.011396177 0.18170078 0.032652125 0.040164452 -0.12102641 0.15936945 0.17795052 0.19161744 0.13554858 -0.062322404 -0.103761286 0.060233276 -0.14686765 -0.013414493 0.14497165 0.053139586 -0.19787855 0.026751194 -0.1105439 -0.15020016 -0.052805528 -0.18178703 -0.07975175 -0.0051442483 0.03728149 -0.07961125 -0.0062941047 0.109372154 -0.05325502 0.017348202 0.052083947 0.029133175 -0.034264494 -0.076119035 0.07812845 0.0014187695 -0.028900776 -0.023388792 0.014064422 0.13420668 0.023563033 0.015536788 -0.08396478 0.06981096 -0.0227692 0.021773437 0.035267588 -0.004094603 0.058986146 0.06669162
68 0.072382204 -0.09522026 0.087061994 -0.036238916 0.02925181 0.021517364 0.0149750775 -0.0070908624 -0.10390031 -0.07798928 -0.06695894 -0.12793635 -0.10759082 0.030624058 0.061672777 0.039559696 0.04806903 -0.009101007 0.14347175 0.048355233 0.101822264 0.14294297 0.20388417 -0.09321298 -0.007777358 0.0070213163 -0.09135871 -0.08069405 0.0072623775 0.14107266 -0.21877573 -0.07427056 -0.11685255 0.01220724 -0.026815183 -0.03107282 -0.04751037 0.12117418 -0.038739134 0.07677303 0.056062005 -0.17249471 -0.038096298 -0.15846914 -0.04224887 -0.082409 0.12664486 -0.03606288 -0.021219067 0.12922633 -0.12816067 -0.14611714 0.07217793 0.13263197 0.007824677 0.0457125 -0.089062735 0.014584367 -0.123699345 0.07792337 0.20932348 -0.041306723 0.07061537 0.06019426
92 -0.022242803 -0.10612983 0.031499594 -0.041003123 0.087310135 0.10814894 0.103728704 0.11952305 -0.02930024 -0.16849568 -0.008699929 -0.21048492 -0.10537794 -0.1635079 0.048323892 0.07236342 -0.11177676 0.14571351 -0.064430475 0.1183921 0.0005817557 0.10332337 0.12731183 -0.10263685 -0.096713535 0.13485324 -0.07018012 -0.121699356 0.19581337 0.061526947 -0.081140555 -0.032756507 -0.11224091 -0.044438485 -0.14812416 -0.06279644 -0.1112797 -0.07378445 0.07057432 -0.123548664 -0.013226324 -0.050052024 -0.16572249 0.018754425 0.085510604 -0.08183936 -0.07206202 -0.07743676 -0.016539175 -0.058400057 -0.055235714 -0.08077465 0.02188799 0.1279407 -0.025292857 0.11611462 -0.020754665 0.08203201 -0.044986226 0.12089444 0.10463575 -0.11407731 -0.05671568 0.018757293
35 0.022317966 -0.2544051 0.095288165 0.0062057306 -0.06772405 -0.038494565 0.035742257 -0.0072643366 -0.11956183 -0.17170879 0.025386017 -0.19780062 -0.22547314 0.085006565 0.15777554 0.099668555 -0.059331212 -0.03928969 0.044900585 0.12931664 0.1663411 0.2079449 0.19055726 0.02047043 0.022620885 -0.0122997025 0.1119011 -0.027772326 0.017178053 0.07010596 -0.10337391 0.023397265 -0.13360623 0.031857807 -0.07245343 0.01228097 0.13371928 0.00067654304 0.14458421 0.028407779 0.02776071 -0.069803074 0.034192424 0.008560002 0.00033086055 -0.11563394 0.051368445 -0.01784681 0.006242525 0.09378462 -0.011516176 -0.016498776 -0.009734114 0.064969294 0.1557205 0.08081555 0.0063558207 -0.045486107 0.103221774 0.24488619 -0.029335521 -0.110871084 0.10714347 -0.050532162
28 0.041302614 -0.0051430506 -0.014532736 -0.086250916 0.057762668 -0.0102740675 -0.11359177 0.071654886 -0.14150704 -0.031586975 0.1074863 -0.0632076 -0.27606624 0.024432873 0.08812169 0.06232196 0.12968165 -0.006583396 -0.022780549 0.12888639 0.15138084 0.15115683 0.20610034 -0.13734214 -0.08888954 0.052739218 -0.118346415 -0.019840961 0.1418889 0.016787384 -0.023612661 0.057179756 0.05081295 -0.1484412 -0.2533935 -0.06670648 0.06621891 -0.039579555 0.0051805326 0.07884192 0.14596443 -0.020874366 0.12985827 0.006162058 0.031745 -0.047065955 0.054704346 -0.0014288388 0.09795588 -0.05506276 -0.11716952 -0.09204507 0.14258923 0.03515184 -0.06645672 0.09378681 -0.14498079 0.1015157 -0.14631803 -0.011354459 0.041106895 -0.005402769 -0.1389508 0.06467608
75 0.09259546 -0.07313534 -0.043570295 0.03537233 0.124912195 0.105797686 0.13570406 -0.119504586 -0.020220853 -0.13509785 -0.033825476 -0.15679672 -0.057433244 -0.19603057 0.09950611 0.046469502 -0.111683294 -0.10330728 0.12621257 0.13496663 0.012716927 0.24566147 0.2544163 -0.112014346 -0.030972406 0.12415343 -0.113814965 -0.2109068 0.011870834 -0.010590843 -0.06211716 -0.017391555 -0.07619804 -0.034128632 -0.14033727 -0.064532265 -0.075519666 -0.07613198 0.060576517 -0.05584366 -0.025111355 -0.0389302 -0.17094202 -0.15268916 -0.027785495 0.005439259 0.13940136 -0.096042484 0.014687345 -0.01727639 -0.10807656 -0.04315562 0.049278755 -0.06272966 -0.079816416 0.04804417 -0.055455074 -0.014966427 0.003988938 0.06311706 0.08205499 -0.15184213 -0.05548235 0.11149639
20 0.057765663 -0.011452304 0.19301581 0.023894921 0.0069170627 -0.048491757 0.043399915 -0.122849 -0.100470684 -0.09195679 -0.015565533 -0.092822924 -0.25084645 -0.016053844 0.07897435 -0.0007181631 0.03829887 0.004811996 0.15360954 0.04988306 0.024646295 0.23501289 0.22234808 -0.15653415 -0.10671747 0.06272776 -0.13396992 -0.09741589 0.07040195 0.118196435 0.03821375 0.032268696 -0.030896269 0.033277266 -0.074663416 0.13850474 0.028524032 -0.06705668 0.035479903 0.15159315 0.044654924 -0.1034273 -0.02487735 -0.12158306 0.14642861 -0.011102197 0.1310386 -0.055637714 0.013171277 0.020021863 -0.07415324 -0.021822779 0.048332337 0.12044428 -0.15696114 0.12359722 -0.068737105 0.026859818 -0.0017121088 0.122039236 0.045079138 -0.011044454 0.0024126961 0.009262595
98 0.09206626 0.043848176 0.06457934 0.0090174265 -0.0053268047 -0.09250238 0.015633177 -0.0057008667 -0.11647417 0.0093587125 -0.08986973 -0.20035447 -0.16083826 -0.20118462 -0.040577102 0.07764836 0.10320795 0.07820366 0.12509894 0.27118063 0.13789259 0.11410888 0.10865173 -0.042732473 -0.017009903 0.07875801 -0.06530417 0.093880236 0.14525379 0.01685694 -0.06780943 -0.13215804 -0.029892862 -0.08611972 -0.17662132 -0.0445901 0.13885236 -0.010801836 0.07668442 0.0067334 -0.037635304 -0.14286606 -0.09082503 0.21024734 0.08571641 -0.12546027 0.14112599 -0.08487389 -0.10897881 0.02623738 -0.07007896 -0.1943349 0.10080015 0.1287265 -0.0823547 0.024260085 0.07079589 -0.084165804 -0.13786282 0.008859306 0.061715733 -0.0548652 -0.020396799 -0.14637583
66 0.1338601 -0.11380386 0.1064282 0.12904315 0.16985337 0.0053075613 -0.0009826651 0.1883845 -0.07166397 0.08332392 0.141004 -0.13464512 -0.09128236 -0.052432314 -0.12583575 0.006337104 0.06764106 -0.08351147 -0.005853115 0.1301444 0.15417941 0.21594258 0.066237316 -9.0800684e-05 -0.059555437 0.17047776 -0.0386769 -0.009148605 0.1357258 0.09644088 -0.13776909 -0.03238168 -0.11238992 0.030136067 -0.06054266 0.0626533 -0.014067595 -0.03389725 0.045331217 0.16591428 0.083012044 -0.09655983 0.06174195 -0.04520656 0.06274921 -0.07153136 0.038915545 -0.058915704 0.0046581053 -0.002538444 -0.10308872 -0.20505391 0.119546354 0.117081046 -0.006382838 0.07515901 -0.020344147 -0.057968453 -0.0863321 0.12492728 0.07207696 -0.16812524 -0.01794619 -0.052515607
63 -0.04703851 -0.22378685 -0.0104689775 -0.09957949 0.07280325 0.02434375 0.0127870925 0.029788312 -0.1338148 0.18002403 -0.08846075 -0.101546675 -0.21410014 -0.030893661 0.05774997 0.10822141 -0.11350816 0.065662555 0.069124505 0.095530845 0.08447723 0.126568 0.05385679 -0.13097627 -0.083066456 0.038588647 -0.07377806 -0.12069727 0.030938553 0.04717501 -0.062595084 -0.07844401 -0.046517037 -0.06271011 -0.10590337 0.06199708 0.08862494 0.1228838 0.1354538 0.017673219 -0.03487083 -0.05211253 0.0006445159 -0.04739706 -0.011427215 0.0408132 0.021706793 -0.17902103 0.072245896 0.057500146 -0.06714137 -0.120162584 0.19758439 0.19961418 0.091973536 0.18327017 -0.043705925 0.01215204 -0.07942236 0.09294916 0.045899007 -0.108667344 0.016778028 0.046492856
84 0.112089984 -0.08028591 0.06462343 0.080289304 -0.023765132 -0.07170111 -0.0011006594 -0.06419726 -0.11012374 -0.098154336 0.11487962 -0.08745701 -0.1742201 -0.17140149 -0.019740904 0.14519417 0.14928614 0.010562964 -0.06563047 0.2730781 0.043815844 0.13972959 0.06221394 -0.02537812 0.089248836 0.09930891 -0.04076265 -0.093004666 -0.12047435 0.00011281059 -0.12023891 -0.11795704 -0.20142826 0.0017348931 -0.061470848 0.0067738937 -0.08487723 -0.10919823 0.03447591 0.019470168 0.13514833 0.020998139 0.0032677543 -0.09956205 -0.015393456 -0.21413165 -0.00090305955 -0.04776982 0.20090953 0.05744814 -0.07304019 -0.03650538 0.04483491 0.068274595 0.23973271 0.14390126 -0.0972253 0.07675884 -0.0748311 0.06403913 0.14010763 0.030017102 -0.027088635 0.0790896
27 -0.007909247 -0.056380644 0.01205873 0.033413056 -0.06722623 0.10981916 -0.05833322 0.113743424 -0.22187829 -0.10033108 0.055147152 -0.23677474 -0.21917775 0.008961063 -0.08631733 0.12053073 0.030500384 -0.03311231 0.0118250605 0.24686481 0.101190425 0.032640234 0.1791811 -0.08427189 -0.07988775 0.02399131 -0.09984203 -0.12889451 0.028351728 -0.03654854 0.008188685 -0.14013562 -0.07827279 -0.08714892 -0.13578893 -0.05982065 0.016507395 0.11084805 -0.09246617 0.03972515 0.09828294 0.004450864 -0.10589381 -0.03337421 0.040715445 -0.06000337 0.0821226 -0.16343877 -0.09398182 0.12051102 -0.054713164 0.003057141 -0.13642463 0.17475277 -0.06547466 0.0067744358 -0.0664542 -0.10319405 0.12758844 0.15310748 -0.053082976 -0.05002152 0.07853696 0.048967563
81 0.048825208 -0.17006758 0.038562886 0.03520444 -0.05658002 -0.3297694 0.08849952 -0.0057930774 -0.17637497 0.13785335 0.13898309 -0.13244113 -0.23276465 0.033539917 0.12390591 0.06466948 0.027630804 -0.034733735 0.03890902 0.13507266 0.19295281 0.16956218 0.1039651 -0.020728001 -0.07005909 -0.050682783 -0.14002325 0.0253879 0.01460509 0.078832954 -0.07396868 -0.01357016 -0.062628835 -0.07203919 -0.077661805 -0.076488264 -0.029526073 0.02673952 0.067885086 -0.061893225 -0.004225478 0.05994705 -0.08652559 -0.11792603 0.0892268 0.01412823 0.002019737 -0.09898 0.033722214 0.16867414 -0.030975562 -0.00067100406 0.15612113 0.026059069 -0.029350357 -0.08213053 -0.0062846504 0.047500536 -0.07468995 0.097249664 0.001392678 -0.007986123 -0.14975168 0.051862627
29 0.076770864 0.03125118 -0.044904325 0.10216887 0.020256065 -0.22350968 -0.032381557 0.05842663 -0.12600426 -0.15904266 0.0272957 -0.13930622 -0.1092768 -0.14121744 -0.0037135321 0.08456893 -0.09655087 0.038484536 -0.11831162 0.03333538 0.09262482 0.18253668 0.20902942 -0.00932468 -0.042519145 0.078253865 -0.13147819 0.04101015 0.116499536 -0.02962625 -0.058896147 -0.082120664 0.03608927 0.0044015236 -0.07023045 -0.035071407 -0.19305839 -0.08087362 -0.07417589 -0.0874796 -0.002288245 -0.08895381 0.17780603 4.902865e-05 0.16098867 -0.043481603 -0.0043643424 -0.023305826 0.04466848 0.11621307 0.056776185 -0.084903836 0.12145696 0.17466785 -0.061028033 0.1888935 -0.042500407 -0.04882997 -0.07932377 0.24287277 0.09326685 -0.047309425 -0.08434278 0.09422329
32 -0.016678153 -0.13260004 0.11478505 -0.120543376 0.07219495 -0.05031914 -0.15837878 0.0641645 -0.1331052 -0.036302995 -0.0354697 -0.122127384 -0.21709874 0.0026580303 0.0054929163 0.035103377 0.060534336 0.021440487 -0.01741876 0.12793992 0.18849945 0.16067989 0.113487154 -0.0039392216 -0.05380465 0.0059707193 -0.20626888 -0.04905328 0.023770051 0.03783399 -0.06959908 0.010010098 -0.1671949 0.005756317 0.010631298 -0.028425071 0.037379876 -0.091411375 -0.12875278 -0.06415927 -0.08900248 -0.043629542 0.049745638 0.061115474 0.032041434 0.039342117 0.13008103 0.0033694247 0.10194523 0.13567905 0.09149822 -0.018364934 0.13685806 0.106319435 0.036365792 -0.051783323 -0.086412445 0.0112835 -0.08026791 0.3487082 0.12733567 0.025231589 -0.15217929 0.06367566
17 0.075287044 -0.0950917 0.15116918 -0.059370644 -0.031299617 0.067597374 0.019229809 -0.0035074183 -0.084176145 -0.17738487 -0.05603307 -0.22961946 0.03329956 -0.10662298 0.045450598 0.050548393 0.005770701 -0.110398784 -0.03684425 0.11435606 0.14505558 0.1633651 0.27293298 0.055646814 -0.14359893 0.19729766 -0.032079116 -0.0953216 -0.02021724 -0.08654663 -0.061494384 -0.11962239 0.13322487 -0.08701133 -0.1613548 0.032333452 0.011099264 -0.0341307 0.07772249 -0.055604715 0.0011830571 -0.075115025 -0.10783632 -0.026917545 -0.008525109 -0.036697987 0.05139755 0.0029314496 0.01127708 0.19807687 0.06585541 -0.007562301 0.18208204 0.27285403 0.014229739 0.11847281 -0.0042531155 -0.11065706 -0.07674219 0.11355324 -0.07381123 0.08428033 0.0035596981 -0.097450994
18 -0.005746111 -0.14990668 0.05888815 -0.05063288 -0.0028445302 -0.064308114 0.14643511 -0.01232427 -0.08054422 0.016485194 -0.10989877 -0.19118607 -0.069083005 -0.058135122 -0.06459931 0.14134002 0.05997555 0.09622001 0.04620176 -0.02048622 -0.0012457682 0.049879067 0.22279845 0.07478119 0.11217756 0.21233647 -0.036529794 -0.076170646 0.21979475 0.042285245 -0.052061427 -0.016723035 -0.1322728 -0.082703926 -0.1431613 -0.030085362 0.1372612 -0.031599298 0.010172585 0.122331485 0.08226009 -0.0592347 -0.018613588 -0.09618255 0.041130718 -0.0646542 -0.0818894 -0.060581062 0.05411809 0.13528888 0.10472331 -0.05336704 0.035897397 0.19594373 -0.026020436 0.050907888 -0.003032075 0.06445539 -0.121584535 0.10516559 0.1285478 -0.16046679 0.03719361 0.14702511
87 0.13692327 -0.12421879 -0.08898424 -0.053984974 0.051460654 -0.030137366 0.05760831 0.08538343 -0.032365534 0.065266706 -0.13930856 -0.11127502 -0.08982967 -0.087500796 -0.042208467 0.056513693 -0.020177826 -0.0066035474 -0.044546947 0.19336504 0.016677843 -0.05175865 0.25852287 -0.14051746 -0.096564084 -0.036569506 -0.06926066 0.032561544 0.004347017 0.076969765 -0.033896107 -0.0067297523 -0.15469834 -0.17057644 -0.22534451 0.034683865 0.03867382 0.0467734 0.10310798 0.004728307 0.017274193 -0.11231183 -0.0044590076 -0.069336206 0.14673777 -0.07408149 -0.07977955 -0.0670831 0.15099947 0.11947042 -0.07482484 0.01975894 0.111979164 0.32364547 -0.02861327 -0.031274185 -0.005256516 -0.11944609 -0.023570098 0.07802565 0.13600962 -0.036203336 -0.062369317 0.13216543
76 0.05319117 -0.11081163 -0.02346436 -0.03443098 -0.037065346 -0.14784709 -0.0745425 -0.08057482 -0.05630679 -0.099997975 -0.02083371 -0.16096082 -0.16352303 -0.0033154127 0.17857262 -0.0063253497 -0.10275276 -0.020874806 0.07247281 0.08670874 0.24813579 0.2257322 0.17551443 -0.020643365 -0.083083734 0.081970215 -0.11073733 0.00012747411 -0.02969517 -0.046769768 0.03066881 -0.054579325 -0.04295343 -0.10867283 -0.024870967 -0.012907347 0.073476344 0.015100348 0.1790774 -0.010635918 -0.01417599 -0.030869333 -0.107357286 -0.032353934 0.105281055 -0.17342404 0.14579311 -0.18515661 -0.03769709 0.056045007 0.022336628 -0.07893712 0.084336646 0.041913666 0.047043815 0.0003863685 -0.013849504 0.011232116 0.04205958 0.12399998 0.023712045 -0.10738741 0.052127156 -0.07964609
7 0.08336549 -0.0048314594 0.02793535 0.10325868 0.07098789 -0.11242855 0.049138736 -0.03881945 -0.19757706 -0.0308453 -0.069715396 -0.22532961 -0.2192842 0.04156901 -0.015505997 0.07783337 -0.018077578 -0.13616996 -0.09606147 0.012076388 0.049675085 0.08389824 0.10362941 -0.05903754 -0.020010067 0.08363444 -0.027304767 -0.05889531 0.0064880894 -0.13228849 -0.0045231734 0.05369465 -0.2220197 -0.075163774 -0.122069836 -0.12077964 0.039233726 -0.06333014 -0.101359025 -0.045218907 0.10886667 -0.010566535 -0.03754422 0.1597588 0.13047689 -0.028911028 0.1018368 -0.026999965 0.054012723 0.12158419 -0.11469526 -0.03275656 -0.04636281 0.1291728 -0.034028526 0.17306392 -0.2555846 -0.12625839 -0.013778241 0.029186154 0.06213225 -0.20082581 0.0040110922 0.13181528
42 -0.027063921 0.00972385 0.02319176 -0.10134071 -0.053570062 -0.12927198 -0.01813145 0.10870275 -0.053824384 0.023968792 0.006234728 -0.09041124 -0.22329322 -0.030719753 0.08332018 0.05027348 0.014152811 0.124412924 -0.03313095 0.08126855 0.20315884 0.17896822 0.07604282 0.05060062 -0.121339746 0.28102776 -0.10179893 0.027867692 0.12503769 -0.07963572 -0.071721 0.038403857 -0.13215424 -0.06581768 -0.17080297 -0.016438976 0.17305104 -0.026608579 0.06449226 -0.030033087 0.08812868 0.07177335 -0.20815878 -0.09335895 0.081274316 0.033276793 0.094692506 -0.12677968 0.057381414 0.17429288 -0.09630565 -0.0067576785 -0.056660898 -0.04396379 0.21405174 0.14335231 0.015267412 0.006286338 0.06038144 0.19301249 0.13403934 0.10263432 0.029633535 0.048380576
89 0.10328418 -0.118747346 0.12968741 -0.08289866 0.078365535 -0.011671349 -0.08102099 0.13431048 -0.018268675 -0.0135510685 0.0046180803 -0.21758848 -0.21005876 0.09206039 0.076024055 -0.05421571 -0.020130228 0.08126272 0.05413844 0.12504916 0.00021885689 0.13504852 0.06792071 -0.14724554 -0.13454677 0.033208154 -0.09938165 -0.07260395 -0.041440707 -0.07989172 0.14444095 0.02887837 -0.11592557 0.0039633475 -0.23916842 -0.0026114397 -0.032994114 -0.033079464 0.03975985 0.081755325 0.007476775 -0.008173965 -0.0050097937 -0.10949825 -0.049874954 -0.18856578 0.07021041 -0.019166166 0.13680209 0.18417263 -0.018380996 0.082750835 -0.073653564 0.1401702 0.030878507 0.1449659 -0.021376554 -0.058813263 0.025125615 0.11485615 0.02836232 -0.21265292 0.008137701 0.03314181
13 0.061391093 -0.13432755 0.18856813 0.021735944 0.22596353 -0.10881141 0.12892334 0.074638136 -0.008966535 0.056530032 0.015804406 -0.3430519 -0.052473683 -0.071711324 -0.076879546 0.07018049 -0.061280467 -0.022415478 0.06375607 0.13590755 0.03725252 -0.06402117 0.1049615 -0.105906695 -0.07524899 0.110879295 -0.11342267 0.050356206 0.11744485 0.08134338 -0.19954784 -0.067827694 0.02367533 -0.011076769 -0.22354688 -0.07898854 0.0056627574 0.036151215 -0.035806924 -0.075159684 0.037205998 0.001360377 0.09483349 -0.006702829 0.15265916 0.06824644 0.13761635 -0.16617005 0.04070826 -0.025324175 0.03829352 -0.051715825 -0.09440235 0.2544054 0.04044467 0.111518875 -0.18692228 0.03647958 -0.13687447 0.08858417 0.10093012 -0.10622169 0.025990523 0.00085666345
25 0.0762845 0.13987477 0.0884749 0.01045358 -0.014230153 -0.1797618 0.037008848 -0.03451215 0.047751766 -0.006788087 0.087599225 -0.21526642 -0.11986267 0.01848543 -0.07890425 0.034606326 0.04074976 0.10767113 0.12774417 0.081866 0.09992441 0.23656362 0.16292532 -0.003312175 0.01332347 0.062827036 -0.0932293 -0.099482775 0.12547256 -0.06027822 -0.1879354 0.06335599 -0.14116928 -0.19222996 -0.17763337 -0.012212686 0.012582047 -0.030777687 0.064273715 -0.017062029 0.067908056 0.048569303 -0.054767605 -0.112911314 0.18766627 0.041874908 0.01086189 0.047006257 0.14490952 0.099203385 -0.06427479 -0.07734555 0.016442364 0.08750037 -0.07184599 0.2151625 -0.17304032 -0.113027655 -0.020678997 0.032997996 0.03571077 -0.13459218 0.017236382 -0.054099966
61 0.1256841 0.031022925 -0.22721669 0.08581469 0.11535283 0.022899963 -0.04734425 0.036219385 -0.06943488 0.03443155 -0.025299938 -0.22774087 -0.066388346 0.02864701 0.0897076 0.08783238 0.10855706 0.08824296 -0.011622371 0.058356956 0.087336354 0.3300215 0.22054087 -0.15385333 -0.006166497 0.047300346 -0.13373019 -0.0064236396 0.06702208 0.044157486 -0.038811747 0.021894963 -0.035167214 -0.02805299 -0.24945775 -0.018744554 -0.02601382 0.051457725 0.013217164 0.026539238 0.08707989 0.11744873 -0.1507861 -0.076823905 -0.009439861 0.002828239 -0.035475653 -0.064298056 -0.04609814 0.08543396 0.13327649 0.08541927 0.14996228 0.010037504 0.0074587194 -0.005326904 -0.10533985 -0.016451545 -0.07230004 0.23005658 -0.11114529 -0.16831854 0.068478376 0.048135657
15 0.021622833 -0.009090081 -0.06789352 0.062465906 0.10526201 -0.06589461 0.09375575 -0.087919764 -0.13487962 0.0006818669 0.10749606 -0.13643199 -0.15547392 0.14307931 0.05460087 0.07292591 -0.124486096 0.004900596 5.9368653e-05 0.13401052 0.20550728 0.2719048 0.1767171 -0.087418936 -0.023085676 -0.013753822 0.046312097 0.0231382 0.03752141 0.022290979 -0.09197527 0.005848923 -0.09600238 -0.030837858 -0.08223727 -0.095482126 0.07569637 -0.027419515 0.16089128 -0.08481562 0.07055182 -0.16246633 -0.037529886 -0.07977563 0.05657236 0.026964216 0.0066327835 -0.11631529 -0.008560262 0.08484261 0.06848249 -0.088051945 0.1713925 0.05846838 -0.05392626 0.0116227195 -0.18389817 -0.019377314 -0.076535664 0.12915386 0.03903104 -0.09319832 0.007816373 0.04665027
8 -0.045220386 -0.024272654 -0.03931918 -0.111126505 0.017339613 0.044772476 -0.0051289913 0.0030969349 0.0033008289 -0.07808865 0.016711347 -0.1783004 -0.12741311 -0.04236428 -0.06780644 0.14275715 -0.08761352 0.08763767 0.029953476 -0.022325093 0.20811856 0.08754473 0.16322082 -0.23053013 -0.1344559 0.09210503 -0.157581 -0.13795881 0.08602151 0.0762849 -0.07331932 -0.013370428 -0.14873992 -0.100208074 -0.15680352 -0.065548666 -0.013704591 0.16639209 -0.006659009 -0.15991914 0.025808804 -0.03776352 -0.050588436 -0.045029372 -0.0961999 -0.03689843 -0.04099792 -0.038735036 0.06999386 0.08448842 -0.12800421 -0.12520185 -0.017027445 0.07519026 -0.13628983 0.2267451 0.077503026 0.004997844 -0.22694036 -0.044162452 0.18332547 -0.2046838 -0.10501061 0.020054545
69 0.07156365 -0.1483296 0.13879491 -0.020401482 -0.0867806 -0.09630544 -0.06527753 0.06575611 -0.098677 -0.0095669655 -0.016731428 -0.16599187 -0.1715739 -0.035703927 -0.010353855 0.08034598 -0.060858525 0.1371445 0.0016312958 0.09150593 0.17831556 0.19600923 0.058864307 -0.101226754 -0.08229141 -0.14672536 -0.16019046 -0.09920993 0.048117574 -0.063719995 0.011122605 -0.053588793 -0.056282956 -0.11986335 -0.20883311 -0.008390937 -0.035593707 0.07563072 0.06451623 0.08943792 0.03619003 -0.0706828 -0.081754595 -0.06609918 0.06621083 -0.026455356 -0.08569214 -0.1753385 0.06137274 0.05782709 -0.112364426 0.099225126 0.08131252 0.10208383 -0.10790667 0.012715959 -0.073916145 -0.03445856 -0.0931606 0.031149985 0.05245508 -0.012004026 0.07039375 0.19426388
14 0.115158886 -0.17569983 -0.17344129 -0.075031936 0.031985614 0.08429376 -0.13022432 0.053168096 -0.02079922 -0.10539294 0.025697708 -0.044560935 -0.11456358 -0.030625086 0.10613521 0.10775647 0.03774598 -0.04572595 0.0850221 0.07531535 0.18127999 0.24359164 0.09173639 -0.13559197 -0.007305973 0.25402313 -0.043546528 -0.03578684 -0.020563934 0.060290303 -0.019229311 0.0009755722 -0.033597935 0.019746915 -0.14212465 -0.057870258 0.01545379 -0.025875496 0.1515856 -0.06081375 -0.028246276 -0.06648677 -0.010129718 -0.25536394 0.048847113 -0.06229304 0.023908036 0.012814537 0.08946433 0.037281185 0.094976604 0.0057267314 0.046232853 0.27740917 0.014409211 0.0123587195 0.0677895 -0.059850175 -0.05521244 0.094251886 0.0687935 0.010479915 0.12806858 0.14395782
64 -0.054927222 -0.11974615 0.02181554 -0.21734494 -0.028641114 -0.05986958 0.0020125643 0.10622612 -0.2890548 0.07110576 0.079955734 -0.024391374 -0.14901711 0.0061107217 -0.04681204 0.029762032 0.17815623 -0.030038536 0.040755797 0.18897107 0.0859078 0.07290419 0.22368458 0.007484891 -0.10955248 0.04860209 -0.09111443 -0.23963068 0.0703523 0.14115882 0.003510532 -0.042956524 -0.18760996 0.023230903 -0.09036342 -0.007261152 0.101412795 0.0039375587 0.13818732 -0.008056875 0.054001898 -0.046800558 -0.115024 -0.07846488 0.06054675 -0.0075845635 0.05101729 0.030328406 0.12823573 0.098167636 -0.035727955 -0.092566155 0.014464822 0.10604309 -0.10889095 0.099248774 -0.0035195695 0.06555078 -0.050978187 0.07902773 0.17578776 -0.012249679 -0.13614562 -0.12488514
85 0.02947337 -0.022257391 -0.026246589 -0.028143426 0.0022323758 -0.05027235 0.16767566 -0.04480451 -0.15647665 -0.04623051 -0.058596354 -0.1233891 -0.053915184 -0.057290122 0.22093318 0.099505484 0.08767818 0.12141842 -0.023950124 0.13321641 0.15478605 0.18318905 0.17920677 -0.0791805 0.0032677688 0.104627155 -0.2038914 0.054374576 -0.03184172 0.016236238 0.03526681 0.05963406 -0.109446764 -0.04734469 -0.013465528 0.023478694 0.0755103 0.0667336 -0.0049359784 -0.092234984 -0.0016071753 0.120269716 -0.21127486 -0.048507195 0.02683089 -0.09749076 -0.01741187 -0.012853998 -0.17147787 -0.030101003 -0.09426617 -0.017778369 0.21681356 0.17509674 0.032416534 0.110460915 -0.14981052 0.17063713 -0.045068566 0.04032995 0.13962941 -0.22752082 -0.14655527 0.086812876
33 0.015944153 -0.14477827 0.07444282 0.081356615 0.002343755 -0.069394544 0.14519095 0.019897826 -0.19755208 -0.10341532 0.03778441 -0.20589088 -0.017385488 0.009407915 0.042173736 0.019485105 0.010629121 -0.16861606 -0.03292633 0.18580079 0.064909466 0.19503504 0.21944523 -0.0379545 -0.055208903 0.12470825 -0.045300834 -0.14998169 0.06538187 0.03248252 0.02425272 -0.017262036 -0.14117494 0.08410588 -0.13705356 -0.078092486 0.103590354 0.1119742 0.10931087 0.035638172 0.06155225 -0.020132903 0.039877962 -0.044979133 0.07562469 -0.11345716 0.093067266 -0.035918213 0.10588986 -0.08317369 0.098180905 0.021388637 0.004136806 0.0046729636 0.111000195 0.1473956 -0.105396725 -0.019230206 0.03898203 0.07256962 0.17657946 -0.032487825 0.09199679 0.070708185
46 0.042929158 -0.18572544 0.15304089 -0.062222153 -0.17021549 -0.0980402 0.17611764 0.06411142 -0.09477072 -0.110473715 -0.02880544 -0.12112636 -0.16176188 -0.10589865 0.029560152 0.107294835 0.09639991 -0.10093168 -0.06656744 -0.020045664 0.14579707 0.10884285 0.19009042 0.048552204 0.07292748 0.1041514 -0.07718243 0.043274466 0.21276465 -0.09743513 0.079871215 0.008579192 -0.06960717 -0.20462981 -0.17486686 -0.14967631 0.05069029 -0.0173023 0.027281485 0.019451814 0.113980256 -0.056129556 0.10788469 -0.05273259 -0.041966766 -0.031891197 0.05091499 0.070826255 -0.016730659 0.018300772 -0.22492121 -0.08841981 0.15152714 0.081203304 -0.09701527 0.16092098 -0.02627403 -0.15655923 -0.022633987 0.17667377 0.07439992 0.0040145344 -0.031860325 0.051666334
11 -0.020749548 -0.16621979 -0.1305005 -0.037194543 0.049191527 -0.017518073 -0.0381784 0.09750101 -0.1990753 -0.12411748 -0.1168783 -0.14594351 -0.1438885 -0.14130266 -0.012759499 -0.040104985 0.047770236 -0.0883032 0.047417205 0.094808325 0.24648586 0.19491589 -0.022627758 0.043142755 -0.11660953 0.021036657 -0.18526569 0.025769677 0.06501946 -0.0036953627 -0.029008407 0.0055492856 -0.03829506 -0.12680544 -0.13592415 -0.17401387 -0.034936786 -0.12141247 0.07367762 0.02961316 0.08467422 -0.21783635 -0.050749153 -0.008081961 0.24340568 -0.11392718 0.006156054 -0.14389881 -0.10835196 0.010528174 -0.07951535 -0.025136635 0.075710475 0.12591097 -0.1511089 0.035955813 -0.17134629 0.032147266 0.057589825 -0.05580445 0.14989953 0.0066209747 0.115232885 0.08915539
19 0.1774091 -0.03848366 -0.006291703 -0.014849043 0.10309359 -0.11105709 0.030964315 0.073398314 -0.051333714 0.0034444975 0.11064995 -0.097922795 -0.21331051 -0.053245783 0.049120877 0.107650444 -0.010781143 0.07937132 -0.06453068 0.21988803 0.13567695 0.10096217 0.14718139 -0.21521859 -0.09533639 0.060360357 -0.085358076 0.02213522 0.03828352 -0.027876735 0.047401063 0.016360383 -0.041078858 0.11161843 -0.11941788 -0.0992011 0.063752554 -0.06183767 0.13255742 -0.008209133 0.054530326 -0.098855756 -0.025205815 -0.023950543 0.043324005 -0.10042079 0.12210918 -0.09649829 0.015957586 -0.04846087 -0.043145794 0.07013054 0.12714237 0.06018826 -0.056565475 0.18447366 -0.0006797771 0.15304236 0.063965045 0.052639786 0.053476714 -0.09595262 -0.031788763 0.089003555
9 0.048508942 -0.070501365 -0.07880939 -0.01236433 -0.011986474 0.054640863 0.104380496 0.07806388 -0.07316533 -0.18884033 -0.07989555 -0.1865002 -0.17469008 -0.013769503 -0.122265376 0.09714666 0.077395625 -0.026718969 0.04671257 0.06579335 0.051136255 0.16212183 0.32430768 -0.2243802 -0.024964513 -0.052638732 -0.089987084 -0.2680365 -0.0029405814 0.0051114857 -0.094829865 0.03418737 -0.11812836 0.08070561 0.0025152613 0.06218163 0.077078655 -0.09133404 -0.081051245 -0.038161628 -0.04586126 -0.1668338 0.02929021 0.02132283 0.107969135 -0.094782196 0.01634921 -0.030945927 -0.004355146 0.06043786 -0.023548447 -0.04221986 0.02888385 0.043057643 0.14262104 0.08406244 0.0023368546 0.024114847 -0.0564555 0.2684451 0.08191851 -0.085903086 0.03600804 -0.07123933
70 0.15814207 -0.050763804 0.04984903 0.17382717 0.05636617 -0.090689786 -0.09843976 -0.11437626 -0.028240813 0.013370893 -0.00065210013 -0.2088586 -0.16859463 -0.21196464 -0.05315478 0.11445364 0.0042569605 0.031414703 -0.02554857 0.058432706 0.010639753 0.15089542 0.18943219 -0.102032624 -0.14114836 0.1593089 -0.1597384 -0.07796876 0.032203414 -0.051898718 0.12031254 0.031651877 -0.04849405 0.023313163 -0.15473564 0.08262211 0.12673512 -0.20216912 0.16305779 0.1026322 -0.0852174 -0.11812968 0.01591496 0.07195019 0.03995999 0.02502 -0.114627644 -0.08284885 0.047250174 -0.029342098 -0.08617377 -0.018449832 0.05415153 0.09517001 -0.09386254 0.0006277886 0.09849599 -0.040024478 -0.07302476 0.19193923 0.18029186 -0.061473753 -0.029982345 0.048865043
0 -0.0632117 -0.14146025 -0.122999854 -0.0013229077 -0.022222918 0.09980137 0.012429056 0.12996279 -0.118228 0.0010754735 -0.016858688 -0.22047712 -0.31658596 0.034823027 0.10671138 0.117157325 0.10779967 0.01868018 -0.08450752 0.02451849 0.07996155 0.16002324 -0.016863601 -0.24739623 -0.10669071 0.10199989 -0.08989363 0.054644637 0.13119052 0.19304553 -0.09779026 -0.114329115 -0.1586176 0.012098809 -0.18180743 0.0901277 -0.06661877 0.018454727 0.0429303 -0.30395487 0.007118352 -0.06943921 0.056395743 -0.05776324 0.095997274 -0.25473928 0.060147043 -0.08765426 0.10028148 0.1562578 0.07460868 0.071365885 -0.014137205 -0.0011187 0.035264816 -0.058011543 0.024151647 -0.067870066 -0.0316121 0.0754318 0.08880468 -0.0034942245 0.034510747 -0.07503121
51 0.15711482 0.009417362 0.079128504 0.08438522 0.121087655 0.07034289 0.050177667 0.018224902 -0.23969339 0.052916985 0.04223098 -0.05627858 -0.12513219 -0.16016845 0.09415236 0.010485778 0.0637796 -0.053033166 -0.10357919 0.20360284 0.0072235228 0.0034937996 0.04056681 -0.09153365 -0.009710602 0.13194312 -0.1177749 -0.08202744 0.019549077 -0.097825445 -0.093479596 -0.053769324 -0.04307991 -0.12383009 -0.06880864 -0.08723768 0.009901823 -0.14701362 0.033605415 0.008293613 0.031793796 -0.157468 -0.02820947 -0.19363168 0.02843733 -0.045016054 0.15156782 -0.12779915 0.01819228 0.1741944 0.013152949 -0.026467893 0.06413658 0.23834641 -0.033762906 0.12439058 0.032459036 0.1697047 -0.05419049 0.12535743 0.1520381 -0.11544471 -0.075189196 0.022507114
73 0.042605806 0.027763179 0.047137346 0.11668881 0.034580823 -0.036936898 -0.046553425 -0.009624325 -0.109077565 -0.062567756 -0.18477184 -0.19621308 -0.166655 -0.07797616 0.08038167 0.0548614 0.17330796 -0.058320608 0.14451185 0.06096141 0.041190773 0.02330353 0.22557865 0.07241645 -0.28661048 0.115320265 -0.06965939 0.117657416 0.065770164 0.111251466 -0.06855798 -0.18108761 -0.18859255 0.0044243494 -0.10907277 -0.1704086 0.128836 -0.13696502 0.07794905 -0.030905072 0.008607019 0.031833995 -0.0778074 0.08150376 0.0137095135 0.016834922 0.039719243 -0.083618715 0.08611916 0.114964925 0.12293408 -0.08624753 -0.04471176 0.21086788 0.010545731 -0.01990786 0.028364435 -0.022057177 -0.16122127 0.08731112 0.19071192 -0.09996072 0.17413612 0.06705888
78 -0.029766673 -0.12150617 0.1191387 0.07326214 0.03372853 -0.030479567 0.16931179 0.11357056 -0.038200684 0.023879835 0.00013709009 -0.19358493 -0.10523217 0.12328995 0.032174043 0.0063669244 -0.029525274 -0.0021175474 0.083363146 0.007862207 0.0051534413 0.1507924 0.1319831 -0.042975977 0.0065306635 0.22447795 -0.0035212229 -0.1824042 0.009904952 -0.044415236 -0.10657967 -0.0837478 -0.08971096 -0.046468653 -0.100914 -0.11169926 0.13826375 -0.149439 -0.042702053 -0.19478379 0.14131851 -0.17450629 -0.1359685 -0.05928924 0.024325576 -0.04301641 0.08915416 -0.13924506 0.09600052 0.045935992 -0.11342051 0.011330401 0.10565693 0.23693947 -0.06875717 0.055996712 -0.06567795 0.0593021 0.04791203 0.0425923 0.13878097 -0.024516702 0.046817113 0.10065554
97 -0.06265251 -0.11014204 -0.032759614 -0.1348619 0.09083027 -0.22502643 -0.0002668114 0.06312978 -0.07819795 0.027105264 -0.13028458 -0.22344315 -0.1065066 0.107104756 -0.08923666 0.15558267 0.097063564 0.03744163 0.14416155 0.078929484 -0.02072692 0.21229446 0.1541657 -0.06273306 -0.028341528 0.12004749 -0.3502256 -0.23072146 0.026140494 -0.088996544 0.04168013 -0.013518377 -0.03753682 -0.03390848 -0.048703406 -0.06295649 -0.051796637 0.069978945 0.059444763 0.07534166 0.041980244 -0.03219951 -0.12822278 -0.044625793 0.12347148 -0.15110709 -0.03462813 -0.014867845 -0.025248988 0.07020601 -0.02966025 -0.05579511 -0.031904314 0.09236867 0.11340853 0.16391823 -0.030746594 0.030883038 -0.095310554 0.03142134 0.002239474 0.036962844 -0.024747422 0.0088213375
23 0.10888362 -0.10926234 0.020297565 0.0045627235 0.17010552 -0.040703755 -0.04272509 -0.086107925 -0.24607395 0.033957075 0.04620079 -0.3785733 -0.034266908 -0.1448412 -0.05401731 0.08347114 0.18780243 0.020298274 -0.0072119264 0.20140298 0.080436654 0.02612373 0.027518077 -0.0760228 -0.05010226 -0.030755289 -0.114991896 0.074586056 -0.052808516 0.032890666 -0.03192671 0.07176177 -0.23480216 0.03441174 -0.12571289 0.018852431 -0.09808285 0.13464741 0.1338192 -0.096363746 0.016210707 -0.049768046 0.05537727 -0.04458005 -0.039329495 -0.15705119 0.033015214 -0.038792588 0.120901234 0.11122347 -0.07416965 0.1527922 0.13125949 0.16772325 0.029022219 0.081225015 -0.07980408 -0.13174227 0.03487231 0.028749947 0.020420127 -0.09412363 0.055173915 -0.04056196
60 0.16053794 -0.09643641 0.08729928 -0.044756092 0.061178423 0.037299886 0.051678713 -0.02255742 -0.21133773 -0.033946287 -0.091792956 -0.14198971 -0.07677045 0.0138754295 -0.012874403 0.16822414 0.105572335 0.020995343 0.011079179 -0.0324538 0.26457742 0.19180876 -0.004524017 -0.04817238 -0.17645545 -0.04145156 -0.15711549 -0.07074376 0.07743402 0.01988699 -0.009230539 -0.08151981 -0.02716694 -0.0047900206 -0.038622286 0.11808708 -0.15516149 0.018559469 0.019570611 -0.026307892 0.037278656 -0.04137496 0.041418515 -0.16769807 0.09049022 -0.05384772 -0.026009193 0.05399722 0.04925993 -0.06264812 -0.21923696 -0.12009153 0.14481764 0.13076076 -0.010649606 0.06465222 -0.19057679 -0.12912664 -0.098199286 0.21030307 0.005215488 -0.1259917 -0.043744225 -0.034308266
80 0.12423274 -0.062247906 0.015935386 -0.017385626 0.027728882 -0.12455102 0.02859658 0.07305676 -0.186692 0.08024067 -0.11989072 -0.07881689 -0.21234617 -0.042653266 -0.043611735 0.11038251 0.09174794 -0.04811757 -0.031014951 0.13057177 0.16656993 0.1634265 0.16844878 -0.022157542 -0.058412876 -0.014598244 -0.063650854 -0.046676163 -0.0141031025 -0.010620691 -0.17321868 -0.007702955 -0.18132098 0.038011864 -0.18045963 0.15136182 0.07827756 0.04252316 -0.15240495 -0.10603178 0.1744996 -0.09860526 -0.05588152 -0.019518513 -0.0026506532 -0.17260292 -0.091056675 -0.2548744 -0.16746655 0.0066197026 -0.20433395 0.05753685 -0.00017203706 -0.006857016 -0.04411335 -0.06325648 -0.034638114 0.0034291346 -0.0006425985 0.056123324 -0.016821587 -0.24402234 -0.012744244 0.0004056956
93 0.12158056 -0.14846142 0.11901687 0.13150398 -0.027536996 -0.17618749 -0.0071226554 -0.013285513 -0.14656879 -0.0056878156 0.118530646 -0.11236282 -0.04229196 -0.06386948 0.06526737 0.1674726 0.06534269 -0.07431236 -0.015630247 -0.03234047 0.039759416 0.21235262 0.19255261 -0.039889175 -0.017584657 0.19468139 -0.13065518 -0.20659733 0.11170308 -0.04536965 -0.09528179 -0.1454185 -0.0073916484 0.0761114 -0.034906022 0.0054673823 -0.12799402 0.030531213 -0.088765025 -0.21792306 0.19759426 -0.019048478 0.019189268 0.04225629 -0.21869603 0.055575445 0.022723 -0.1138895 0.03280312 0.17890136 -0.049767766 0.055484217 0.14614318 0.12126928 -0.14130864 0.002478161 -0.14849019 0.011383389 0.0645552 0.18882465 0.056373063 -0.13572983 -0.011864703 0.07727877
67 0.11312327 -0.19886443 0.03349585 0.050982486 0.05630064 0.08794267 0.08652265 0.08479966 -0.24184875 -0.06374721 0.055728797 -0.11538727 -0.17603336 -0.04205439 -0.02572139 0.016274186 0.071873955 0.051487114 0.097114354 -0.07762616 0.10208685 0.1699221 0.33018494 -0.004839269 0.004442488 0.048686955 0.0057981582 -0.065112464 -0.07151115 -0.017375294 0.0014649692 -0.05461866 -0.068211846 0.07001 -0.087912075 -0.060360793 0.02716677 -0.047521234 0.034326155 -0.07693386 0.11455969 0.035106856 -0.16290212 -0.09930387 0.0018388373 -0.11111938 0.13393229 -0.051378403 0.11169314 0.077731065 -0.10878133 0.016338043 -0.017430263 -0.029902933 0.07353049 0.27081782 0.08043393 -0.06331642 -0.020242615 0.07522598 -0.032455597 -0.19672307 -0.05066838 0.0285596
5 0.08034413 -0.17421606 0.21492589 -0.100402944 0.06322862 -0.07766655 -0.077791244 0.01718599 -0.010323843 -0.047087815 0.053697906 -0.14490764 -0.1319329 0.15654472 0.048527967 0.008795961 -0.045219745 -0.038143583 0.02331971 -0.08552996 0.082482606 0.16183382 0.24376175 -0.093658544 -0.10504253 0.10991711 0.053070787 -0.0510546 0.015587755 0.10924792 -0.17634363 0.008599071 -0.19321372 0.07416791 -0.22802198 -0.10099739 0.0872623 0.03970228 0.14720559 -0.14163987 0.2084036 -0.19421832 -0.21976632 0.061866205 0.22836606 -0.11759532 -0.11425612 0.117461875 -0.0040700296 0.04007813 0.08323379 0.06558894 0.064549625 0.04345059 0.015301353 0.11679604 -0.09045568 0.13143241 -0.07636718 0.02825806 -0.009733109 -0.10516629 0.025128879 0.06677702
43 0.06506202 -0.10900029 -0.004136139 0.0031723455 -0.01705973 0.04360142 -0.116166495 0.15146342 -0.060713045 0.00040956188 -0.04510237 -0.13334848 -0.08922909 -0.023253556 0.06761798 0.04459185 0.0011248629 0.1608248 -0.0062451926 0.1686029 0.033358064 0.19107163 0.18466884 -0.14481753 -0.011237379 0.12460563 -0.15042529 -0.19466995 0.25046274 -0.030293584 -0.0825831 -0.118269004 -0.056708306 -0.16209862 -0.21842068 -0.041932184 -0.19236739 -0.13000658 -0.05506561 0.11014045 0.03792693 0.060712315 0.06971845 -0.066275835 0.06628097 -0.03172225 0.075962156 0.00819085 -0.007094651 0.024446994 -0.058865514 -0.080307506 0.02976061 -0.032830767 0.1788209 -0.06704311 -0.11625265 -0.08078043 -0.03463069 -0.036092736 0.27578604 -0.25066853 -0.054762717 -0.010964861
3 0.076569274 -0.1914881 -0.0013292969 0.13301584 0.047029056 0.1736776 0.13740735 -0.03717379 -0.14540774 0.13430439 -0.023370383 -0.22738133 -0.048200455 -0.06518029 -0.1310917 0.06713643 0.061969053 0.06729367 -0.053409275 0.26365626 0.13225691 0.27125806 0.08785929 -0.08755591 -0.1371646 0.12054586 -0.044007573 -0.020186648 -0.009889912 -0.13023186 -0.08099414 0.046325214 -0.043516364 0.02608838 -0.118506305 -0.06034859 0.1304051 -0.022283945 0.0053831777 -0.09163592 -0.02354634 -0.098141685 -0.12372181 0.06189033 0.07226338 0.05231209 -0.17508818 -0.14291428 -0.07014663 0.14669023 -0.09693521 0.00022436601 0.014338098 0.06108686 0.08162792 0.09220159 -0.22391307 0.003944865 -0.032783628 0.0825725 0.036559988 -0.038850404 -0.0040129274 0.114796944
72 0.06154755 -0.034153175 -0.06391026 -0.08292908 0.07619184 -0.0104422495 0.016110629 0.0935028 -0.059218604 -0.075275466 -0.010230116 -0.27461004 -0.12853496 0.10903979 0.15310578 0.033571977 0.11092507 -0.10057886 0.12656386 0.03920177 0.07527571 0.13636234 0.21859886 -0.07660841 -0.10108629 0.1499675 -0.093756184 -0.05610159 0.14297529 0.0013754133 0.08269879 0.015621006 -0.12787695 0.07890802 -0.041519362 -0.0044230693 -0.14787436 -0.101806015 0.122246616 -0.05138524 -0.0804755 -0.03396731 -0.012365627 -0.11737235 0.027443336 -0.2342126 -0.11311237 0.06685748 -0.13699202 0.07692725 0.025612414 -0.00010330993 0.038765535 0.11321313 -0.008888579 0.12226037 -0.08960815 -0.13321167 -0.16013369 -0.040169317 0.12167111 -0.088091746 -0.14714777 0.08605896
12 0.17244683 0.068754494 0.006890655 0.04266409 -0.04341959 -0.04303626 0.0052989773 -0.08753379 -0.073191956 0.034650147 -0.07034339 -0.16466421 -0.1135516 -0.034568697 -0.014530249 -0.12989616 0.12893757 0.014608212 0.057302423 -0.0480127 0.0162251 0.07127175 0.22002675 -0.0389717 -0.14592941 0.08185051 -0.2640187 -0.10586849 -0.0077926083 -0.057107788 0.10587823 -0.083676234 -0.10046424 -0.2737317 -0.04348452 -0.12763962 -0.0023294115 -0.12989834 0.06049081 -0.03240894 0.0439146 -0.013412061 -0.08167787 -0.20132777 0.0687033 -0.20869075 -0.05919161 -0.21403296 0.03772627 -0.021230947 -0.004411093 -0.24333304 0.07222934 0.11063219 0.014206378 0.09152007 -0.07318077 0.015208765 -0.01978928 0.28763703 0.04721819 -0.12264352 0.021464562 -0.13752015
22 0.04126436 0.075986445 0.10231397 0.07628678 0.06650524 -0.13291837 -0.081027605 0.19413938 0.020180423 -0.036330655 -0.07247796 -0.2196524 -0.07459917 0.034301728 -0.009065755 0.07002533 0.0059562568 0.021285113 0.081635565 0.082741186 0.25097647 0.05835578 0.17125079 -0.075829566 -0.098804265 0.102350906 -0.24902754 0.01364001 -0.065802924 -0.034267377 -0.14570685 -0.044352327 -0.0683297 0.039405487 -0.08343357 0.08853245 0.093777984 -0.14576368 -0.0036768708 -0.027162531 0.10928752 -0.030522913 -0.17875923 -0.092523344 0.057507064 -0.017344005 0.2119634 -0.025666013 -0.15021786 0.18718453 -0.08993358 0.056431416 0.048914112 0.20426624 -0.09833638 0.051367857 0.07686467 -0.06737545 -0.04119489 0.04374273 0.110830106 -0.19811825 0.060188185 -0.06589206
91 0.04552657 -0.028279712 -0.061633904 -0.12288806 0.08338331 -0.0067502097 -0.06520653 0.05163004 -0.18467592 0.1147008 -0.15060435 -0.21383218 -0.24916534 -0.11919138 0.08737033 0.1408517 0.08183867 0.11735538 0.015282971 0.108969055 0.07713117 0.2543982 0.020021291 0.06755823 -0.12828892 -0.012867325 0.09747631 -0.122628845 0.11803842 0.077667415 0.015540872 -0.084466845 -0.18435255 -0.0074301604 -0.31430355 -0.023780925 0.012103466 -0.062124807 -0.04640299 0.11949761 0.043577686 0.13124837 -0.04105299 0.0154708745 0.11768695 0.15325224 0.161342 -0.047765493 -0.00041840738 -0.034280714 -0.0922221 -0.1383991 0.13125879 0.013059058 -0.031513028 -0.012579639 -0.14925985 0.06799542 0.07395942 0.20461893 -0.036402654 -0.026720606 -0.019760787 0.054595787
94 0.18981256 -0.22040635 -0.12685546 0.066901274 -0.09474521 -0.06251061 0.08708679 -0.024653642 -0.16239262 0.0325895 0.034790255 -0.16369794 0.02000287 -0.079726934 0.08162959 0.20107542 0.041361585 -0.0061071683 -0.09865064 0.13573791 0.09000803 0.2077868 0.061454035 -0.0054128733 -0.005040847 0.080516994 -0.13704786 -0.14630587 0.09991828 0.083106264 -0.16229875 -0.1626427 0.07354244 -0.08660237 -0.15497339 0.037569575 0.0066364957 0.11658497 0.179257 0.038176656 0.07433507 -0.030937359 -0.024191342 -0.07766516 0.048656575 -0.107531264 -0.08304956 -0.040283643 0.17441534 0.042940546 0.026070273 -0.021505361 -0.016010677 0.035817053 0.021484315 0.13206357 -0.005373653 -0.028883457 0.042912826 0.23774207 0.07313094 -0.051172882 -0.08505838 -0.014613145
47 0.07363922 -0.10797074 -0.0879466 -0.13924056 0.102574125 -0.009292682 -0.005874432 0.033933964 -0.05256745 -0.018634595 0.07622735 -0.21697138 -0.25238165 -0.04646928 -0.03295101 0.0781784 -0.02823351 -0.05084736 0.14132555 0.14611594 0.19106752 0.014849285 0.14992666 -0.08088287 -0.095888376 0.08799011 -0.044077676 -0.108701386 -0.033791766 -0.2171811 0.1470917 -0.0001745996 0.015493007 0.06445893 -0.23221512 0.033271197 0.08961134 -0.023882892 0.016099745 -0.15353593 0.06729865 -0.047238547 0.0020491183 -0.11722296 -0.051021054 -0.08706072 0.10013029 -0.034405842 0.13221285 0.1522646 -0.067223735 0.051394116 -0.032328904 -0.03546751 0.06645645 -0.0034600773 -0.06324793 -0.086491145 -0.10350715 0.20320417 0.09317428 0.03442986 -0.22613508 0.1294252
41 0.057917707 -0.06223768 0.046955377 -0.054174032 -0.12755921 -0.041225594 0.003086299 0.05255753 -0.19745682 0.105076484 0.0250657 -0.3234991 -0.32597598 -0.0018594133 0.14752832 0.070428856 0.0878854 0.00063438516 0.10430387 -0.026417106 0.005363293 0.036094256 0.119989716 -0.16951494 -0.17684819 0.076439 0.10225746 -0.09061081 0.13561071 0.029076468 0.04006566 0.05243286 -0.07548207 0.014404147 -0.1886403 -0.023675654 -0.016953504 -0.04252125 0.015545247 -0.1675638 -0.0597624 -0.029194882 -0.052107625 0.035730228 0.101428516 -0.03209792 -0.06698682 0.10224809 -0.03820994 0.15908134 -0.030635191 -0.07733094 0.067004226 0.1805771 -0.045346886 0.11853813 0.04791761 0.074633755 -0.08241746 0.09175131 0.04379748 0.030310987 0.1321487 0.017533481
38 0.103130825 -0.0050001647 0.15193598 -0.044250432 -0.03840485 0.038887013 -0.0044980654 0.023182426 -0.15091246 -0.06898765 0.039217785 -0.17083094 -0.26879314 -0.042345464 -0.078675605 0.19917078 0.023186415 -0.12037105 -0.03395806 0.11220616 0.019199353 0.22184783 0.11472981 -0.08612256 0.011778377 0.020618035 -0.21591416 -0.19666149 0.010248484 0.102829896 0.19113448 -0.1668332 -0.15976194 -0.112169914 -0.18113466 0.12877087 -0.011028352 0.06181277 -0.00733268 0.017890455 0.0005469751 0.0068408716 0.08286668 0.030368024 -0.0008636511 -0.1600436 0.057530303 -0.09309466 -0.017628374 0.041391984 0.21364877 0.101320006 -0.044410955 0.019539306 0.019491669 0.10666091 -0.108127624 0.065146215 0.11512821 -0.04289739 0.08449965 -0.2736306 -0.06645654 0.11153307
1 0.16366051 -0.004042944 0.022425512 -0.16703103 0.25588164 -0.12823601 0.097740486 -0.07397228 -0.036106244 -0.08243702 0.1330062 -0.14546682 -0.30714968 -0.10662536 0.03272701 0.005773335 0.06481702 -0.11451279 0.068384044 -0.11829315 0.13470396 0.14475276 0.028111465 -0.050223354 -0.08844345 0.14873585 -0.08091771 -0.04718441 0.14546613 -0.018487278 -0.17046747 -0.030954847 0.042797595 -0.03153004 -0.15154359 0.11077853 -0.12381866 -0.12669727 0.041190457 0.1299531 -0.11325746 -0.14587426 -0.08583546 0.040740997 -0.07198033 -0.075452514 0.05338706 -0.2425661 0.12163691 0.08614024 0.04194049 0.025538893 0.015279056 0.10090352 0.12768547 0.030050881 -0.15215762 -0.08338619 0.00010229151 0.15899548 0.096543506 -0.16914555 -0.032742485 -0.13107194
62 0.14017427 -0.27572355 0.11161717 0.14475814 0.15005201 -0.014508458 -0.057833448 -0.11454774 -0.23674022 0.04051026 -0.0044753035 -0.27794412 -0.27217048 -0.0050059804 0.0257911 0.2106984 0.09704985 0.029759498 -0.05723579 -0.14477947 0.12232031 0.034590088 0.041971307 0.14687115 0.019629518 0.07532603 -0.07706416 -0.04502543 0.033419438 -0.06170858 0.04656203 -0.010445609 -0.091741726 -0.023014162 -0.098972015 -0.12300948 0.08863827 -0.028559977 0.22563942 0.027483482 0.14097969 -0.017150266 0.070178956 -0.1461055 0.004727826 -0.07744437 0.091625184 -0.17742124 0.0027085897 0.119090416 -0.029176358 -0.036156453 -0.030239861 0.06129707 0.094167784 -0.016446952 0.07405829 -0.02618202 0.027380005 0.08612726 -0.027914083 0.03409739 -0.14594516 0.14776169
96 0.19490461 -0.21551687 0.093902506 0.14899273 0.05444234 -0.050307 -0.052334864 -0.1284512 -0.113969125 -0.06097296 0.030395623 0.017133899 -0.32540435 -0.17967449 -0.040498156 0.0021704852 -0.0100642005 -0.040117603 0.01831167 0.19390649 0.1975333 0.0028376337 0.1821418 -0.0041334108 -0.12435302 0.16621257 -0.061026692 -0.039213274 0.10356572 -0.014132534 -0.056237817 0.1026204 -0.062788896 0.06196314 -0.018982094 -0.10152742 -0.05767603 0.09872909 0.10882837 0.019746237 -0.043358374 0.061364625 -0.094866365 -0.05267841 0.14075588 -0.08741874 -0.10292283 0.07002184 0.0012189541 0.10819259 -0.1531659 -0.14593513 -0.14713283 0.107008316 -0.052614667 0.09879338 -0.08683633 -0.023728566 0.009094475 0.15928471 0.15147474 -0.09856609 -1.1523006e-05 0.017419957
83 0.20711775 -0.100015685 0.08590899 -0.116531365 -0.12627998 -0.14282073 -0.07349735 0.04435999 -0.07867474 0.057000995 0.0039787097 -0.15668775 -0.06802382 -0.14017867 0.045313917 -0.06646111 0.03861748 0.06857589 0.078213096 0.099263206 0.08522663 0.09318661 0.17849928 -0.009970099 -0.052825935 0.07910718 -0.01654852 -0.040624924 0.069657795 -0.13949563 -0.024901187 -0.09276088 -0.17030619 0.023476614 -0.11884998 -0.2151554 -0.029066833 0.04076014 0.06018453 -0.029643532 -0.074643925 -0.06630313 0.01660828 0.030551163 -0.113099545 -0.12172844 0.09032101 -0.15480494 0.008438825 0.16184597 -0.12618247 -0.106264986 0.12261587 0.059763987 0.16313334 0.3038013 -0.0010965534 -0.09531916 0.04022168 0.069066375 -0.022596043 -0.238531 0.031374317 0.07173877
54 0.17600965 -0.19627285 0.027296368 0.07138725 0.015237566 -0.11620574 0.024617821 0.004527016 -0.097235054 0.17122766 0.18840207 -0.1146757 -0.086351156 0.088354394 0.004338336 0.1294767 0.12141051 -0.07896446 0.007374247 0.14182588 0.02592086 0.17629415 0.2977045 -0.24102342 0.10628539 0.10531562 -0.024976881 0.0071716537 -0.085262194 -0.008957381 0.009781904 -0.13342075 -0.14218788 -0.054776523 -0.061089873 -0.13858692 -0.0797578 -0.1818875 0.03016309 -0.06519806 -0.046352446 -0.045613095 -0.116001874 -0.022956664 0.066738196 -0.046610687 0.1967165 -0.050380904 0.13617092 0.087548904 -0.25404724 -0.10319554 -0.12551552 0.06311293 -0.0040570376 -0.13028206 -0.1230254 -0.044235844 -0.12882054 0.037473783 0.12060434 -0.056608517 0.024824323 0.004796964
